digraph Tree {
node [shape=box] ;
0 [label="X[2] <= 0.825\ngini = 0.698\nsamples = 250\nvalue = [78, 98, 52, 22]"] ;
1 [label="gini = 0.0\nsamples = 3\nvalue = [0, 3, 0, 0]"] ;
0 -> 1 [labeldistance=2.5, labelangle=45, headlabel="True"] ;
2 [label="X[0] <= 13.43\ngini = 0.7\nsamples = 247\nvalue = [78, 95, 52, 22]"] ;
0 -> 2 [labeldistance=2.5, labelangle=-45, headlabel="False"] ;
3 [label="X[0] <= 11.205\ngini = 0.691\nsamples = 161\nvalue = [48, 68, 28, 17]"] ;
2 -> 3 ;
4 [label="X[0] <= 11.125\ngini = 0.708\nsamples = 102\nvalue = [35, 36, 20, 11]"] ;
3 -> 4 ;
5 [label="X[2] <= 84.18\ngini = 0.71\nsamples = 99\nvalue = [32, 36, 20, 11]"] ;
4 -> 5 ;
6 [label="X[2] <= 83.525\ngini = 0.704\nsamples = 81\nvalue = [23, 32, 18, 8]"] ;
5 -> 6 ;
7 [label="X[0] <= 10.06\ngini = 0.697\nsamples = 78\nvalue = [23, 32, 15, 8]"] ;
6 -> 7 ;
8 [label="X[1] <= 16.5\ngini = 0.694\nsamples = 58\nvalue = [13, 26, 11, 8]"] ;
7 -> 8 ;
9 [label="X[1] <= 11.5\ngini = 0.642\nsamples = 47\nvalue = [9, 25, 7, 6]"] ;
8 -> 9 ;
10 [label="X[2] <= 73.805\ngini = 0.722\nsamples = 26\nvalue = [6, 10, 4, 6]"] ;
9 -> 10 ;
11 [label="X[0] <= 8.685\ngini = 0.708\nsamples = 24\nvalue = [4, 10, 4, 6]"] ;
10 -> 11 ;
12 [label="X[0] <= 8.11\ngini = 0.678\nsamples = 11\nvalue = [1, 3, 2, 5]"] ;
11 -> 12 ;
13 [label="X[1] <= 5.0\ngini = 0.694\nsamples = 7\nvalue = [1, 3, 2, 1]"] ;
12 -> 13 ;
14 [label="X[2] <= 56.92\ngini = 0.5\nsamples = 2\nvalue = [0, 0, 1, 1]"] ;
13 -> 14 ;
15 [label="gini = 0.0\nsamples = 1\nvalue = [0, 0, 1, 0]"] ;
14 -> 15 ;
16 [label="gini = 0.0\nsamples = 1\nvalue = [0, 0, 0, 1]"] ;
14 -> 16 ;
17 [label="X[2] <= 31.75\ngini = 0.56\nsamples = 5\nvalue = [1, 3, 1, 0]"] ;
13 -> 17 ;
18 [label="X[1] <= 6.5\ngini = 0.667\nsamples = 3\nvalue = [1, 1, 1, 0]"] ;
17 -> 18 ;
19 [label="gini = 0.0\nsamples = 1\nvalue = [1, 0, 0, 0]"] ;
18 -> 19 ;
20 [label="X[0] <= 6.8\ngini = 0.5\nsamples = 2\nvalue = [0, 1, 1, 0]"] ;
18 -> 20 ;
21 [label="gini = 0.0\nsamples = 1\nvalue = [0, 1, 0, 0]"] ;
20 -> 21 ;
22 [label="gini = 0.0\nsamples = 1\nvalue = [0, 0, 1, 0]"] ;
20 -> 22 ;
23 [label="gini = 0.0\nsamples = 2\nvalue = [0, 2, 0, 0]"] ;
17 -> 23 ;
24 [label="gini = 0.0\nsamples = 4\nvalue = [0, 0, 0, 4]"] ;
12 -> 24 ;
25 [label="X[1] <= 10.5\ngini = 0.627\nsamples = 13\nvalue = [3, 7, 2, 1]"] ;
11 -> 25 ;
26 [label="X[0] <= 8.985\ngini = 0.569\nsamples = 12\nvalue = [3, 7, 2, 0]"] ;
25 -> 26 ;
27 [label="X[0] <= 8.79\ngini = 0.444\nsamples = 3\nvalue = [2, 1, 0, 0]"] ;
26 -> 27 ;
28 [label="gini = 0.0\nsamples = 1\nvalue = [0, 1, 0, 0]"] ;
27 -> 28 ;
29 [label="gini = 0.0\nsamples = 2\nvalue = [2, 0, 0, 0]"] ;
27 -> 29 ;
30 [label="X[2] <= 19.175\ngini = 0.494\nsamples = 9\nvalue = [1, 6, 2, 0]"] ;
26 -> 30 ;
31 [label="X[1] <= 4.0\ngini = 0.667\nsamples = 3\nvalue = [1, 1, 1, 0]"] ;
30 -> 31 ;
32 [label="gini = 0.0\nsamples = 1\nvalue = [0, 0, 1, 0]"] ;
31 -> 32 ;
33 [label="X[1] <= 6.0\ngini = 0.5\nsamples = 2\nvalue = [1, 1, 0, 0]"] ;
31 -> 33 ;
34 [label="gini = 0.0\nsamples = 1\nvalue = [1, 0, 0, 0]"] ;
33 -> 34 ;
35 [label="gini = 0.0\nsamples = 1\nvalue = [0, 1, 0, 0]"] ;
33 -> 35 ;
36 [label="X[0] <= 9.185\ngini = 0.278\nsamples = 6\nvalue = [0, 5, 1, 0]"] ;
30 -> 36 ;
37 [label="X[0] <= 9.055\ngini = 0.5\nsamples = 2\nvalue = [0, 1, 1, 0]"] ;
36 -> 37 ;
38 [label="gini = 0.0\nsamples = 1\nvalue = [0, 1, 0, 0]"] ;
37 -> 38 ;
39 [label="gini = 0.0\nsamples = 1\nvalue = [0, 0, 1, 0]"] ;
37 -> 39 ;
40 [label="gini = 0.0\nsamples = 4\nvalue = [0, 4, 0, 0]"] ;
36 -> 40 ;
41 [label="gini = 0.0\nsamples = 1\nvalue = [0, 0, 0, 1]"] ;
25 -> 41 ;
42 [label="gini = 0.0\nsamples = 2\nvalue = [2, 0, 0, 0]"] ;
10 -> 42 ;
43 [label="X[2] <= 45.555\ngini = 0.449\nsamples = 21\nvalue = [3, 15, 3, 0]"] ;
9 -> 43 ;
44 [label="X[0] <= 9.065\ngini = 0.569\nsamples = 12\nvalue = [3, 7, 2, 0]"] ;
43 -> 44 ;
45 [label="X[0] <= 7.585\ngini = 0.656\nsamples = 8\nvalue = [3, 3, 2, 0]"] ;
44 -> 45 ;
46 [label="X[2] <= 35.225\ngini = 0.444\nsamples = 3\nvalue = [1, 2, 0, 0]"] ;
45 -> 46 ;
47 [label="gini = 0.0\nsamples = 2\nvalue = [0, 2, 0, 0]"] ;
46 -> 47 ;
48 [label="gini = 0.0\nsamples = 1\nvalue = [1, 0, 0, 0]"] ;
46 -> 48 ;
49 [label="X[2] <= 23.015\ngini = 0.64\nsamples = 5\nvalue = [2, 1, 2, 0]"] ;
45 -> 49 ;
50 [label="X[0] <= 7.695\ngini = 0.444\nsamples = 3\nvalue = [2, 0, 1, 0]"] ;
49 -> 50 ;
51 [label="gini = 0.0\nsamples = 1\nvalue = [0, 0, 1, 0]"] ;
50 -> 51 ;
52 [label="gini = 0.0\nsamples = 2\nvalue = [2, 0, 0, 0]"] ;
50 -> 52 ;
53 [label="X[2] <= 30.955\ngini = 0.5\nsamples = 2\nvalue = [0, 1, 1, 0]"] ;
49 -> 53 ;
54 [label="gini = 0.0\nsamples = 1\nvalue = [0, 1, 0, 0]"] ;
53 -> 54 ;
55 [label="gini = 0.0\nsamples = 1\nvalue = [0, 0, 1, 0]"] ;
53 -> 55 ;
56 [label="gini = 0.0\nsamples = 4\nvalue = [0, 4, 0, 0]"] ;
44 -> 56 ;
57 [label="X[0] <= 9.45\ngini = 0.198\nsamples = 9\nvalue = [0, 8, 1, 0]"] ;
43 -> 57 ;
58 [label="gini = 0.0\nsamples = 7\nvalue = [0, 7, 0, 0]"] ;
57 -> 58 ;
59 [label="X[2] <= 61.21\ngini = 0.5\nsamples = 2\nvalue = [0, 1, 1, 0]"] ;
57 -> 59 ;
60 [label="gini = 0.0\nsamples = 1\nvalue = [0, 1, 0, 0]"] ;
59 -> 60 ;
61 [label="gini = 0.0\nsamples = 1\nvalue = [0, 0, 1, 0]"] ;
59 -> 61 ;
62 [label="X[2] <= 77.46\ngini = 0.694\nsamples = 11\nvalue = [4, 1, 4, 2]"] ;
8 -> 62 ;
63 [label="X[0] <= 8.12\ngini = 0.691\nsamples = 9\nvalue = [2, 1, 4, 2]"] ;
62 -> 63 ;
64 [label="X[2] <= 67.585\ngini = 0.625\nsamples = 4\nvalue = [2, 1, 1, 0]"] ;
63 -> 64 ;
65 [label="gini = 0.0\nsamples = 2\nvalue = [2, 0, 0, 0]"] ;
64 -> 65 ;
66 [label="X[2] <= 75.58\ngini = 0.5\nsamples = 2\nvalue = [0, 1, 1, 0]"] ;
64 -> 66 ;
67 [label="gini = 0.0\nsamples = 1\nvalue = [0, 1, 0, 0]"] ;
66 -> 67 ;
68 [label="gini = 0.0\nsamples = 1\nvalue = [0, 0, 1, 0]"] ;
66 -> 68 ;
69 [label="X[2] <= 34.775\ngini = 0.48\nsamples = 5\nvalue = [0, 0, 3, 2]"] ;
63 -> 69 ;
70 [label="gini = 0.0\nsamples = 2\nvalue = [0, 0, 2, 0]"] ;
69 -> 70 ;
71 [label="X[1] <= 18.5\ngini = 0.444\nsamples = 3\nvalue = [0, 0, 1, 2]"] ;
69 -> 71 ;
72 [label="gini = 0.0\nsamples = 1\nvalue = [0, 0, 0, 1]"] ;
71 -> 72 ;
73 [label="X[0] <= 9.375\ngini = 0.5\nsamples = 2\nvalue = [0, 0, 1, 1]"] ;
71 -> 73 ;
74 [label="gini = 0.0\nsamples = 1\nvalue = [0, 0, 1, 0]"] ;
73 -> 74 ;
75 [label="gini = 0.0\nsamples = 1\nvalue = [0, 0, 0, 1]"] ;
73 -> 75 ;
76 [label="gini = 0.0\nsamples = 2\nvalue = [2, 0, 0, 0]"] ;
62 -> 76 ;
77 [label="X[2] <= 59.05\ngini = 0.62\nsamples = 20\nvalue = [10, 6, 4, 0]"] ;
7 -> 77 ;
78 [label="X[0] <= 10.945\ngini = 0.544\nsamples = 13\nvalue = [8, 2, 3, 0]"] ;
77 -> 78 ;
79 [label="X[1] <= 17.0\ngini = 0.397\nsamples = 11\nvalue = [8, 0, 3, 0]"] ;
78 -> 79 ;
80 [label="X[0] <= 10.39\ngini = 0.32\nsamples = 10\nvalue = [8, 0, 2, 0]"] ;
79 -> 80 ;
81 [label="X[0] <= 10.215\ngini = 0.48\nsamples = 5\nvalue = [3, 0, 2, 0]"] ;
80 -> 81 ;
82 [label="gini = 0.0\nsamples = 2\nvalue = [2, 0, 0, 0]"] ;
81 -> 82 ;
83 [label="X[2] <= 24.47\ngini = 0.444\nsamples = 3\nvalue = [1, 0, 2, 0]"] ;
81 -> 83 ;
84 [label="gini = 0.0\nsamples = 1\nvalue = [1, 0, 0, 0]"] ;
83 -> 84 ;
85 [label="gini = 0.0\nsamples = 2\nvalue = [0, 0, 2, 0]"] ;
83 -> 85 ;
86 [label="gini = 0.0\nsamples = 5\nvalue = [5, 0, 0, 0]"] ;
80 -> 86 ;
87 [label="gini = 0.0\nsamples = 1\nvalue = [0, 0, 1, 0]"] ;
79 -> 87 ;
88 [label="gini = 0.0\nsamples = 2\nvalue = [0, 2, 0, 0]"] ;
78 -> 88 ;
89 [label="X[0] <= 10.79\ngini = 0.571\nsamples = 7\nvalue = [2, 4, 1, 0]"] ;
77 -> 89 ;
90 [label="X[0] <= 10.525\ngini = 0.32\nsamples = 5\nvalue = [0, 4, 1, 0]"] ;
89 -> 90 ;
91 [label="gini = 0.0\nsamples = 3\nvalue = [0, 3, 0, 0]"] ;
90 -> 91 ;
92 [label="X[2] <= 73.825\ngini = 0.5\nsamples = 2\nvalue = [0, 1, 1, 0]"] ;
90 -> 92 ;
93 [label="gini = 0.0\nsamples = 1\nvalue = [0, 0, 1, 0]"] ;
92 -> 93 ;
94 [label="gini = 0.0\nsamples = 1\nvalue = [0, 1, 0, 0]"] ;
92 -> 94 ;
95 [label="gini = 0.0\nsamples = 2\nvalue = [2, 0, 0, 0]"] ;
89 -> 95 ;
96 [label="gini = 0.0\nsamples = 3\nvalue = [0, 0, 3, 0]"] ;
6 -> 96 ;
97 [label="X[2] <= 91.055\ngini = 0.66\nsamples = 18\nvalue = [9, 4, 2, 3]"] ;
5 -> 97 ;
98 [label="X[0] <= 9.185\ngini = 0.486\nsamples = 12\nvalue = [8, 1, 0, 3]"] ;
97 -> 98 ;
99 [label="X[2] <= 90.865\ngini = 0.198\nsamples = 9\nvalue = [8, 0, 0, 1]"] ;
98 -> 99 ;
100 [label="gini = 0.0\nsamples = 8\nvalue = [8, 0, 0, 0]"] ;
99 -> 100 ;
101 [label="gini = 0.0\nsamples = 1\nvalue = [0, 0, 0, 1]"] ;
99 -> 101 ;
102 [label="X[0] <= 10.855\ngini = 0.444\nsamples = 3\nvalue = [0, 1, 0, 2]"] ;
98 -> 102 ;
103 [label="gini = 0.0\nsamples = 2\nvalue = [0, 0, 0, 2]"] ;
102 -> 103 ;
104 [label="gini = 0.0\nsamples = 1\nvalue = [0, 1, 0, 0]"] ;
102 -> 104 ;
105 [label="X[2] <= 97.32\ngini = 0.611\nsamples = 6\nvalue = [1, 3, 2, 0]"] ;
97 -> 105 ;
106 [label="X[0] <= 7.74\ngini = 0.625\nsamples = 4\nvalue = [1, 1, 2, 0]"] ;
105 -> 106 ;
107 [label="gini = 0.0\nsamples = 1\nvalue = [0, 1, 0, 0]"] ;
106 -> 107 ;
108 [label="X[0] <= 10.265\ngini = 0.444\nsamples = 3\nvalue = [1, 0, 2, 0]"] ;
106 -> 108 ;
109 [label="gini = 0.0\nsamples = 2\nvalue = [0, 0, 2, 0]"] ;
108 -> 109 ;
110 [label="gini = 0.0\nsamples = 1\nvalue = [1, 0, 0, 0]"] ;
108 -> 110 ;
111 [label="gini = 0.0\nsamples = 2\nvalue = [0, 2, 0, 0]"] ;
105 -> 111 ;
112 [label="gini = 0.0\nsamples = 3\nvalue = [3, 0, 0, 0]"] ;
4 -> 112 ;
113 [label="X[1] <= 8.5\ngini = 0.629\nsamples = 59\nvalue = [13, 32, 8, 6]"] ;
3 -> 113 ;
114 [label="X[0] <= 12.265\ngini = 0.32\nsamples = 15\nvalue = [3, 12, 0, 0]"] ;
113 -> 114 ;
115 [label="gini = 0.0\nsamples = 6\nvalue = [0, 6, 0, 0]"] ;
114 -> 115 ;
116 [label="X[1] <= 7.5\ngini = 0.444\nsamples = 9\nvalue = [3, 6, 0, 0]"] ;
114 -> 116 ;
117 [label="X[0] <= 12.605\ngini = 0.48\nsamples = 5\nvalue = [3, 2, 0, 0]"] ;
116 -> 117 ;
118 [label="gini = 0.0\nsamples = 2\nvalue = [2, 0, 0, 0]"] ;
117 -> 118 ;
119 [label="X[1] <= 1.5\ngini = 0.444\nsamples = 3\nvalue = [1, 2, 0, 0]"] ;
117 -> 119 ;
120 [label="gini = 0.0\nsamples = 1\nvalue = [0, 1, 0, 0]"] ;
119 -> 120 ;
121 [label="X[0] <= 13.16\ngini = 0.5\nsamples = 2\nvalue = [1, 1, 0, 0]"] ;
119 -> 121 ;
122 [label="gini = 0.0\nsamples = 1\nvalue = [1, 0, 0, 0]"] ;
121 -> 122 ;
123 [label="gini = 0.0\nsamples = 1\nvalue = [0, 1, 0, 0]"] ;
121 -> 123 ;
124 [label="gini = 0.0\nsamples = 4\nvalue = [0, 4, 0, 0]"] ;
116 -> 124 ;
125 [label="X[0] <= 11.685\ngini = 0.69\nsamples = 44\nvalue = [10, 20, 8, 6]"] ;
113 -> 125 ;
126 [label="X[1] <= 20.0\ngini = 0.531\nsamples = 14\nvalue = [1, 9, 3, 1]"] ;
125 -> 126 ;
127 [label="X[0] <= 11.43\ngini = 0.462\nsamples = 13\nvalue = [0, 9, 3, 1]"] ;
126 -> 127 ;
128 [label="gini = 0.0\nsamples = 1\nvalue = [0, 0, 1, 0]"] ;
127 -> 128 ;
129 [label="X[1] <= 13.5\ngini = 0.403\nsamples = 12\nvalue = [0, 9, 2, 1]"] ;
127 -> 129 ;
130 [label="X[1] <= 11.5\ngini = 0.571\nsamples = 7\nvalue = [0, 4, 2, 1]"] ;
129 -> 130 ;
131 [label="gini = 0.0\nsamples = 3\nvalue = [0, 3, 0, 0]"] ;
130 -> 131 ;
132 [label="X[1] <= 12.5\ngini = 0.625\nsamples = 4\nvalue = [0, 1, 2, 1]"] ;
130 -> 132 ;
133 [label="X[2] <= 39.52\ngini = 0.444\nsamples = 3\nvalue = [0, 1, 2, 0]"] ;
132 -> 133 ;
134 [label="gini = 0.0\nsamples = 2\nvalue = [0, 0, 2, 0]"] ;
133 -> 134 ;
135 [label="gini = 0.0\nsamples = 1\nvalue = [0, 1, 0, 0]"] ;
133 -> 135 ;
136 [label="gini = 0.0\nsamples = 1\nvalue = [0, 0, 0, 1]"] ;
132 -> 136 ;
137 [label="gini = 0.0\nsamples = 5\nvalue = [0, 5, 0, 0]"] ;
129 -> 137 ;
138 [label="gini = 0.0\nsamples = 1\nvalue = [1, 0, 0, 0]"] ;
126 -> 138 ;
139 [label="X[0] <= 11.87\ngini = 0.72\nsamples = 30\nvalue = [9, 11, 5, 5]"] ;
125 -> 139 ;
140 [label="gini = 0.0\nsamples = 2\nvalue = [0, 0, 0, 2]"] ;
139 -> 140 ;
141 [label="X[2] <= 3.75\ngini = 0.699\nsamples = 28\nvalue = [9, 11, 5, 3]"] ;
139 -> 141 ;
142 [label="gini = 0.0\nsamples = 2\nvalue = [2, 0, 0, 0]"] ;
141 -> 142 ;
143 [label="X[1] <= 10.5\ngini = 0.698\nsamples = 26\nvalue = [7, 11, 5, 3]"] ;
141 -> 143 ;
144 [label="X[2] <= 38.395\ngini = 0.667\nsamples = 6\nvalue = [1, 1, 3, 1]"] ;
143 -> 144 ;
145 [label="X[0] <= 12.75\ngini = 0.5\nsamples = 2\nvalue = [1, 1, 0, 0]"] ;
144 -> 145 ;
146 [label="gini = 0.0\nsamples = 1\nvalue = [1, 0, 0, 0]"] ;
145 -> 146 ;
147 [label="gini = 0.0\nsamples = 1\nvalue = [0, 1, 0, 0]"] ;
145 -> 147 ;
148 [label="X[2] <= 77.475\ngini = 0.375\nsamples = 4\nvalue = [0, 0, 3, 1]"] ;
144 -> 148 ;
149 [label="gini = 0.0\nsamples = 2\nvalue = [0, 0, 2, 0]"] ;
148 -> 149 ;
150 [label="X[0] <= 11.965\ngini = 0.5\nsamples = 2\nvalue = [0, 0, 1, 1]"] ;
148 -> 150 ;
151 [label="gini = 0.0\nsamples = 1\nvalue = [0, 0, 1, 0]"] ;
150 -> 151 ;
152 [label="gini = 0.0\nsamples = 1\nvalue = [0, 0, 0, 1]"] ;
150 -> 152 ;
153 [label="X[0] <= 13.14\ngini = 0.64\nsamples = 20\nvalue = [6, 10, 2, 2]"] ;
143 -> 153 ;
154 [label="X[2] <= 87.055\ngini = 0.574\nsamples = 18\nvalue = [6, 10, 1, 1]"] ;
153 -> 154 ;
155 [label="X[2] <= 64.12\ngini = 0.561\nsamples = 17\nvalue = [5, 10, 1, 1]"] ;
154 -> 155 ;
156 [label="X[2] <= 49.015\ngini = 0.569\nsamples = 12\nvalue = [5, 6, 0, 1]"] ;
155 -> 156 ;
157 [label="X[0] <= 12.03\ngini = 0.5\nsamples = 6\nvalue = [1, 4, 0, 1]"] ;
156 -> 157 ;
158 [label="gini = 0.0\nsamples = 2\nvalue = [0, 2, 0, 0]"] ;
157 -> 158 ;
159 [label="X[2] <= 11.95\ngini = 0.625\nsamples = 4\nvalue = [1, 2, 0, 1]"] ;
157 -> 159 ;
160 [label="gini = 0.0\nsamples = 2\nvalue = [0, 2, 0, 0]"] ;
159 -> 160 ;
161 [label="X[2] <= 21.475\ngini = 0.5\nsamples = 2\nvalue = [1, 0, 0, 1]"] ;
159 -> 161 ;
162 [label="gini = 0.0\nsamples = 1\nvalue = [0, 0, 0, 1]"] ;
161 -> 162 ;
163 [label="gini = 0.0\nsamples = 1\nvalue = [1, 0, 0, 0]"] ;
161 -> 163 ;
164 [label="X[2] <= 56.93\ngini = 0.444\nsamples = 6\nvalue = [4, 2, 0, 0]"] ;
156 -> 164 ;
165 [label="gini = 0.0\nsamples = 3\nvalue = [3, 0, 0, 0]"] ;
164 -> 165 ;
166 [label="X[2] <= 61.92\ngini = 0.444\nsamples = 3\nvalue = [1, 2, 0, 0]"] ;
164 -> 166 ;
167 [label="gini = 0.0\nsamples = 2\nvalue = [0, 2, 0, 0]"] ;
166 -> 167 ;
168 [label="gini = 0.0\nsamples = 1\nvalue = [1, 0, 0, 0]"] ;
166 -> 168 ;
169 [label="X[1] <= 15.5\ngini = 0.32\nsamples = 5\nvalue = [0, 4, 1, 0]"] ;
155 -> 169 ;
170 [label="gini = 0.0\nsamples = 4\nvalue = [0, 4, 0, 0]"] ;
169 -> 170 ;
171 [label="gini = 0.0\nsamples = 1\nvalue = [0, 0, 1, 0]"] ;
169 -> 171 ;
172 [label="gini = 0.0\nsamples = 1\nvalue = [1, 0, 0, 0]"] ;
154 -> 172 ;
173 [label="X[2] <= 41.315\ngini = 0.5\nsamples = 2\nvalue = [0, 0, 1, 1]"] ;
153 -> 173 ;
174 [label="gini = 0.0\nsamples = 1\nvalue = [0, 0, 1, 0]"] ;
173 -> 174 ;
175 [label="gini = 0.0\nsamples = 1\nvalue = [0, 0, 0, 1]"] ;
173 -> 175 ;
176 [label="X[0] <= 16.86\ngini = 0.698\nsamples = 86\nvalue = [30, 27, 24, 5]"] ;
2 -> 176 ;
177 [label="X[2] <= 52.03\ngini = 0.688\nsamples = 59\nvalue = [24, 13, 18, 4]"] ;
176 -> 177 ;
178 [label="X[2] <= 2.395\ngini = 0.653\nsamples = 36\nvalue = [14, 5, 15, 2]"] ;
177 -> 178 ;
179 [label="gini = 0.0\nsamples = 3\nvalue = [3, 0, 0, 0]"] ;
178 -> 179 ;
180 [label="X[1] <= 9.5\ngini = 0.656\nsamples = 33\nvalue = [11, 5, 15, 2]"] ;
178 -> 180 ;
181 [label="X[0] <= 15.39\ngini = 0.494\nsamples = 9\nvalue = [1, 2, 6, 0]"] ;
180 -> 181 ;
182 [label="X[2] <= 39.48\ngini = 0.625\nsamples = 4\nvalue = [1, 2, 1, 0]"] ;
181 -> 182 ;
183 [label="gini = 0.0\nsamples = 2\nvalue = [0, 2, 0, 0]"] ;
182 -> 183 ;
184 [label="X[1] <= 7.0\ngini = 0.5\nsamples = 2\nvalue = [1, 0, 1, 0]"] ;
182 -> 184 ;
185 [label="gini = 0.0\nsamples = 1\nvalue = [1, 0, 0, 0]"] ;
184 -> 185 ;
186 [label="gini = 0.0\nsamples = 1\nvalue = [0, 0, 1, 0]"] ;
184 -> 186 ;
187 [label="gini = 0.0\nsamples = 5\nvalue = [0, 0, 5, 0]"] ;
181 -> 187 ;
188 [label="X[0] <= 16.0\ngini = 0.663\nsamples = 24\nvalue = [10, 3, 9, 2]"] ;
180 -> 188 ;
189 [label="X[0] <= 15.56\ngini = 0.675\nsamples = 20\nvalue = [6, 3, 9, 2]"] ;
188 -> 189 ;
190 [label="X[2] <= 17.89\ngini = 0.594\nsamples = 16\nvalue = [6, 2, 8, 0]"] ;
189 -> 190 ;
191 [label="X[2] <= 11.275\ngini = 0.64\nsamples = 5\nvalue = [2, 2, 1, 0]"] ;
190 -> 191 ;
192 [label="gini = 0.0\nsamples = 1\nvalue = [0, 0, 1, 0]"] ;
191 -> 192 ;
193 [label="X[0] <= 13.945\ngini = 0.5\nsamples = 4\nvalue = [2, 2, 0, 0]"] ;
191 -> 193 ;
194 [label="gini = 0.0\nsamples = 1\nvalue = [1, 0, 0, 0]"] ;
193 -> 194 ;
195 [label="X[0] <= 14.975\ngini = 0.444\nsamples = 3\nvalue = [1, 2, 0, 0]"] ;
193 -> 195 ;
196 [label="gini = 0.0\nsamples = 2\nvalue = [0, 2, 0, 0]"] ;
195 -> 196 ;
197 [label="gini = 0.0\nsamples = 1\nvalue = [1, 0, 0, 0]"] ;
195 -> 197 ;
198 [label="X[0] <= 14.32\ngini = 0.463\nsamples = 11\nvalue = [4, 0, 7, 0]"] ;
190 -> 198 ;
199 [label="X[0] <= 13.465\ngini = 0.48\nsamples = 5\nvalue = [3, 0, 2, 0]"] ;
198 -> 199 ;
200 [label="gini = 0.0\nsamples = 1\nvalue = [0, 0, 1, 0]"] ;
199 -> 200 ;
201 [label="X[0] <= 13.975\ngini = 0.375\nsamples = 4\nvalue = [3, 0, 1, 0]"] ;
199 -> 201 ;
202 [label="gini = 0.0\nsamples = 2\nvalue = [2, 0, 0, 0]"] ;
201 -> 202 ;
203 [label="X[1] <= 11.5\ngini = 0.5\nsamples = 2\nvalue = [1, 0, 1, 0]"] ;
201 -> 203 ;
204 [label="gini = 0.0\nsamples = 1\nvalue = [1, 0, 0, 0]"] ;
203 -> 204 ;
205 [label="gini = 0.0\nsamples = 1\nvalue = [0, 0, 1, 0]"] ;
203 -> 205 ;
206 [label="X[1] <= 11.5\ngini = 0.278\nsamples = 6\nvalue = [1, 0, 5, 0]"] ;
198 -> 206 ;
207 [label="X[2] <= 21.89\ngini = 0.5\nsamples = 2\nvalue = [1, 0, 1, 0]"] ;
206 -> 207 ;
208 [label="gini = 0.0\nsamples = 1\nvalue = [0, 0, 1, 0]"] ;
207 -> 208 ;
209 [label="gini = 0.0\nsamples = 1\nvalue = [1, 0, 0, 0]"] ;
207 -> 209 ;
210 [label="gini = 0.0\nsamples = 4\nvalue = [0, 0, 4, 0]"] ;
206 -> 210 ;
211 [label="X[2] <= 35.475\ngini = 0.625\nsamples = 4\nvalue = [0, 1, 1, 2]"] ;
189 -> 211 ;
212 [label="gini = 0.0\nsamples = 2\nvalue = [0, 0, 0, 2]"] ;
211 -> 212 ;
213 [label="X[2] <= 40.755\ngini = 0.5\nsamples = 2\nvalue = [0, 1, 1, 0]"] ;
211 -> 213 ;
214 [label="gini = 0.0\nsamples = 1\nvalue = [0, 0, 1, 0]"] ;
213 -> 214 ;
215 [label="gini = 0.0\nsamples = 1\nvalue = [0, 1, 0, 0]"] ;
213 -> 215 ;
216 [label="gini = 0.0\nsamples = 4\nvalue = [4, 0, 0, 0]"] ;
188 -> 216 ;
217 [label="X[0] <= 14.155\ngini = 0.665\nsamples = 23\nvalue = [10, 8, 3, 2]"] ;
177 -> 217 ;
218 [label="gini = 0.0\nsamples = 2\nvalue = [0, 0, 2, 0]"] ;
217 -> 218 ;
219 [label="X[2] <= 60.075\ngini = 0.617\nsamples = 21\nvalue = [10, 8, 1, 2]"] ;
217 -> 219 ;
220 [label="X[1] <= 9.5\ngini = 0.278\nsamples = 6\nvalue = [5, 1, 0, 0]"] ;
219 -> 220 ;
221 [label="gini = 0.0\nsamples = 1\nvalue = [0, 1, 0, 0]"] ;
220 -> 221 ;
222 [label="gini = 0.0\nsamples = 5\nvalue = [5, 0, 0, 0]"] ;
220 -> 222 ;
223 [label="X[0] <= 14.8\ngini = 0.649\nsamples = 15\nvalue = [5, 7, 1, 2]"] ;
219 -> 223 ;
224 [label="gini = 0.0\nsamples = 3\nvalue = [3, 0, 0, 0]"] ;
223 -> 224 ;
225 [label="X[0] <= 16.66\ngini = 0.597\nsamples = 12\nvalue = [2, 7, 1, 2]"] ;
223 -> 225 ;
226 [label="X[2] <= 62.92\ngini = 0.545\nsamples = 11\nvalue = [1, 7, 1, 2]"] ;
225 -> 226 ;
227 [label="gini = 0.0\nsamples = 1\nvalue = [0, 0, 0, 1]"] ;
226 -> 227 ;
228 [label="X[2] <= 81.425\ngini = 0.48\nsamples = 10\nvalue = [1, 7, 1, 1]"] ;
226 -> 228 ;
229 [label="gini = 0.0\nsamples = 5\nvalue = [0, 5, 0, 0]"] ;
228 -> 229 ;
230 [label="X[2] <= 87.445\ngini = 0.72\nsamples = 5\nvalue = [1, 2, 1, 1]"] ;
228 -> 230 ;
231 [label="X[2] <= 83.685\ngini = 0.667\nsamples = 3\nvalue = [1, 0, 1, 1]"] ;
230 -> 231 ;
232 [label="gini = 0.0\nsamples = 1\nvalue = [0, 0, 0, 1]"] ;
231 -> 232 ;
233 [label="X[2] <= 84.6\ngini = 0.5\nsamples = 2\nvalue = [1, 0, 1, 0]"] ;
231 -> 233 ;
234 [label="gini = 0.0\nsamples = 1\nvalue = [0, 0, 1, 0]"] ;
233 -> 234 ;
235 [label="gini = 0.0\nsamples = 1\nvalue = [1, 0, 0, 0]"] ;
233 -> 235 ;
236 [label="gini = 0.0\nsamples = 2\nvalue = [0, 2, 0, 0]"] ;
230 -> 236 ;
237 [label="gini = 0.0\nsamples = 1\nvalue = [1, 0, 0, 0]"] ;
225 -> 237 ;
238 [label="X[0] <= 19.38\ngini = 0.631\nsamples = 27\nvalue = [6, 14, 6, 1]"] ;
176 -> 238 ;
239 [label="X[2] <= 6.34\ngini = 0.519\nsamples = 17\nvalue = [3, 11, 3, 0]"] ;
238 -> 239 ;
240 [label="X[0] <= 18.075\ngini = 0.5\nsamples = 2\nvalue = [1, 0, 1, 0]"] ;
239 -> 240 ;
241 [label="gini = 0.0\nsamples = 1\nvalue = [1, 0, 0, 0]"] ;
240 -> 241 ;
242 [label="gini = 0.0\nsamples = 1\nvalue = [0, 0, 1, 0]"] ;
240 -> 242 ;
243 [label="X[0] <= 18.345\ngini = 0.427\nsamples = 15\nvalue = [2, 11, 2, 0]"] ;
239 -> 243 ;
244 [label="X[0] <= 17.785\ngini = 0.56\nsamples = 10\nvalue = [2, 6, 2, 0]"] ;
243 -> 244 ;
245 [label="X[1] <= 6.0\ngini = 0.406\nsamples = 8\nvalue = [1, 6, 1, 0]"] ;
244 -> 245 ;
246 [label="X[0] <= 17.105\ngini = 0.5\nsamples = 2\nvalue = [0, 1, 1, 0]"] ;
245 -> 246 ;
247 [label="gini = 0.0\nsamples = 1\nvalue = [0, 1, 0, 0]"] ;
246 -> 247 ;
248 [label="gini = 0.0\nsamples = 1\nvalue = [0, 0, 1, 0]"] ;
246 -> 248 ;
249 [label="X[1] <= 12.0\ngini = 0.278\nsamples = 6\nvalue = [1, 5, 0, 0]"] ;
245 -> 249 ;
250 [label="gini = 0.0\nsamples = 3\nvalue = [0, 3, 0, 0]"] ;
249 -> 250 ;
251 [label="X[2] <= 16.175\ngini = 0.444\nsamples = 3\nvalue = [1, 2, 0, 0]"] ;
249 -> 251 ;
252 [label="gini = 0.0\nsamples = 1\nvalue = [0, 1, 0, 0]"] ;
251 -> 252 ;
253 [label="X[1] <= 16.5\ngini = 0.5\nsamples = 2\nvalue = [1, 1, 0, 0]"] ;
251 -> 253 ;
254 [label="gini = 0.0\nsamples = 1\nvalue = [1, 0, 0, 0]"] ;
253 -> 254 ;
255 [label="gini = 0.0\nsamples = 1\nvalue = [0, 1, 0, 0]"] ;
253 -> 255 ;
256 [label="X[0] <= 18.13\ngini = 0.5\nsamples = 2\nvalue = [1, 0, 1, 0]"] ;
244 -> 256 ;
257 [label="gini = 0.0\nsamples = 1\nvalue = [1, 0, 0, 0]"] ;
256 -> 257 ;
258 [label="gini = 0.0\nsamples = 1\nvalue = [0, 0, 1, 0]"] ;
256 -> 258 ;
259 [label="gini = 0.0\nsamples = 5\nvalue = [0, 5, 0, 0]"] ;
243 -> 259 ;
260 [label="X[1] <= 11.5\ngini = 0.72\nsamples = 10\nvalue = [3, 3, 3, 1]"] ;
238 -> 260 ;
261 [label="X[0] <= 19.785\ngini = 0.611\nsamples = 6\nvalue = [1, 3, 2, 0]"] ;
260 -> 261 ;
262 [label="gini = 0.0\nsamples = 1\nvalue = [1, 0, 0, 0]"] ;
261 -> 262 ;
263 [label="X[0] <= 20.195\ngini = 0.48\nsamples = 5\nvalue = [0, 3, 2, 0]"] ;
261 -> 263 ;
264 [label="gini = 0.0\nsamples = 1\nvalue = [0, 0, 1, 0]"] ;
263 -> 264 ;
265 [label="X[2] <= 44.64\ngini = 0.375\nsamples = 4\nvalue = [0, 3, 1, 0]"] ;
263 -> 265 ;
266 [label="X[0] <= 21.47\ngini = 0.5\nsamples = 2\nvalue = [0, 1, 1, 0]"] ;
265 -> 266 ;
267 [label="gini = 0.0\nsamples = 1\nvalue = [0, 0, 1, 0]"] ;
266 -> 267 ;
268 [label="gini = 0.0\nsamples = 1\nvalue = [0, 1, 0, 0]"] ;
266 -> 268 ;
269 [label="gini = 0.0\nsamples = 2\nvalue = [0, 2, 0, 0]"] ;
265 -> 269 ;
270 [label="X[0] <= 20.295\ngini = 0.625\nsamples = 4\nvalue = [2, 0, 1, 1]"] ;
260 -> 270 ;
271 [label="gini = 0.0\nsamples = 1\nvalue = [0, 0, 0, 1]"] ;
270 -> 271 ;
272 [label="X[1] <= 19.5\ngini = 0.444\nsamples = 3\nvalue = [2, 0, 1, 0]"] ;
270 -> 272 ;
273 [label="gini = 0.0\nsamples = 2\nvalue = [2, 0, 0, 0]"] ;
272 -> 273 ;
274 [label="gini = 0.0\nsamples = 1\nvalue = [0, 0, 1, 0]"] ;
272 -> 274 ;
}